{
  "seq_len": 32,
  "d_model": 4,
  "toeplitz_K": 16,
  "decoder_weight": [
    -0.12444216012954712,
    0.022561311721801758,
    0.07295054197311401,
    0.11858713626861572
  ],
  "decoder_bias": 0.19621413946151733,
  "out_expected": 0.19658485054969788,
  "channels": [
    {
      "x": [
        1.764052345967664,
        1.8675579901499675,
        -0.10321885179355784,
        0.7610377251469934,
        1.4940790731576061,
        -2.5529898158340787,
        2.2697546239876076,
        1.5327792143584575,
        -0.8877857476301128,
        1.2302906807277207,
        -1.0485529650670926,
        -0.5096521817516535,
        -1.6138978475579515,
        -0.510805137568873,
        0.06651722238316789,
        -0.672460447775951,
        0.17742614225375283,
        -0.9072983643832422,
        1.1394006845433007,
        -0.8707971491818818,
        -1.1651498407833565,
        1.4882521937955997,
        -1.0707526215105425,
        0.2082749780768603,
        0.010500020720820478,
        1.8831506970562544,
        -1.17312340511416,
        1.9229420264803847,
        -0.8612256850547025,
        0.947251967773748,
        0.37642553115562943,
        -0.6945678597313655
      ],
      "coeffs": [
        -0.0031978969927877188,
        -0.0021335817873477936,
        -0.0012023205636069179,
        -0.00041526544373482466,
        0.00021922984160482883,
        0.000695708324201405,
        0.0010116449557244778,
        0.0011674719862639904,
        0.0011665107449516654,
        0.0010149013251066208,
        0.0007214507786557078,
        0.0002974712406285107,
        -0.00024344077974092215,
        -0.0008856660570017993,
        -0.0016118320636451244,
        -0.0024031358771026134
      ],
      "D": 1.5409960746765137,
      "y_skip_expected": [
        2.7127564829677757,
        2.868163524014017,
        -0.1648353063161756,
        1.167564699386407,
        2.295703642554271,
        -3.928406284074652,
        3.4968203841143364,
        2.358755267531418,
        -1.3651837250843226,
        1.8961454997954932,
        -1.6104877842742926,
        -0.7788837578186576,
        -2.477257732207292,
        -0.7801314554042073,
        0.1039380641811717,
        -1.0382482172349023,
        0.27011838907048086,
        -1.3971791885198162,
        1.7489139363362467,
        -1.3459202288105987,
        -1.793313606505343,
        2.280661430628295,
        -1.6538449129874122,
        0.32079262517095236,
        0.014602409678740108,
        2.8995938374481276,
        -1.8049401282067197,
        2.961122552610247,
        -1.3270822127963888,
        1.4573278127874831,
        0.5794070805021589,
        -1.0680445925692565
      ],
      "y_act": [
        -0.05077945441007614,
        0.1301322728395462,
        -0.08175501972436905,
        0.02447085827589035,
        0.14781318604946136,
        0.023021381348371506,
        0.1516592800617218,
        0.14245440065860748,
        -0.07995910942554474,
        0.13561955094337463,
        -0.023855527862906456,
        -0.006233905907720327,
        0.0012636409373953938,
        -0.074912428855896,
        0.02497764490544796,
        0.01603192649781704,
        0.009474503807723522,
        -0.01590423285961151,
        0.053074777126312256,
        -0.017470622435212135,
        0.028568442910909653,
        0.17485801875591278,
        -0.02849089354276657,
        -0.0189551692456007,
        -8.391842129640281e-05,
        0.04775238782167435,
        0.03887728229165077,
        0.14088933169841766,
        -0.014581297524273396,
        -0.020926179364323616,
        -0.14101378619670868,
        -0.08937530964612961
      ]
    },
    {
      "x": [
        0.4001572083672233,
        -0.977277879876411,
        0.41059850193837233,
        0.12167501649282841,
        -0.20515826376580087,
        0.6536185954403606,
        -1.4543656745987648,
        1.469358769900285,
        -1.980796468223927,
        1.2023798487844113,
        -1.4200179371789752,
        -0.4380743016111864,
        -0.2127402802139687,
        -1.180632184122412,
        0.3024718977397814,
        -0.3595531615405413,
        -0.4017809362082619,
        0.05194539579613895,
        -1.2348258203536526,
        -0.5788496647644155,
        0.9008264869541871,
        1.8958891760305832,
        1.0544517269311366,
        0.9766390364837128,
        1.7858704939058352,
        -1.3477590611424464,
        1.9436211856492926,
        1.4805147914344243,
        1.9100649530990337,
        -0.1550100930908342,
        -1.0994007905841945,
        -0.14963454032767076
      ],
      "coeffs": [
        -0.018971195444464684,
        -0.011978254653513432,
        -0.004231363069266081,
        0.0036553721874952316,
        0.011003637686371803,
        0.017139649018645287,
        0.021468481048941612,
        0.02354455552995205,
        0.02312910556793213,
        0.02022663690149784,
        0.01509526651352644,
        0.008228687569499016,
        0.00031130580464378,
        -0.007848666980862617,
        -0.015400637872517109,
        -0.021538447588682175
      ],
      "D": -0.293428897857666,
      "y_skip_expected": [
        -0.1250091492294407,
        0.30050851591223765,
        -0.11825813743624292,
        -0.037331598862055865,
        0.06172748562912816,
        -0.2046420907043147,
        0.44418627376902675,
        -0.44830544782180465,
        0.604632427439074,
        -0.361985080809036,
        0.4323938854834536,
        0.14163810748222594,
        0.06566257054340338,
        0.35736214500116964,
        -0.10487565608449051,
        0.078930227163194,
        0.0932394543808257,
        -0.07920996036374454,
        0.3223571507089684,
        0.13402923714879053,
        -0.33010902361860056,
        -0.6373340820740143,
        -0.42255807041762006,
        -0.3449564021999177,
        -0.6148025285234087,
        0.4229413882388874,
        -0.5596830782150681,
        -0.40344033132342977,
        -0.5095413065244079,
        0.1333226952023454,
        0.4869713783603472,
        0.22758352422117387
      ],
      "y_act": [
        -1.2363839149475098,
        -0.9010595679283142,
        -0.1583492010831833,
        -0.35080811381340027,
        -0.7231748104095459,
        0.05538715049624443,
        -1.1356723308563232,
        -0.877643883228302,
        0.28731927275657654,
        -0.37459132075309753,
        0.26296451687812805,
        0.3534402847290039,
        0.31686627864837646,
        0.11696450412273407,
        0.27137327194213867,
        0.39948081970214844,
        0.36657023429870605,
        0.03589881584048271,
        -0.4485349953174591,
        0.2065741866827011,
        0.0457150824368,
        -0.7607434391975403,
        0.049280617386102676,
        -0.16709792613983154,
        -0.05793987959623337,
        -0.122933529317379,
        0.2223653495311737,
        -1.1479477882385254,
        0.04623749479651451,
        -0.5035134553909302,
        -0.19183845818042755,
        0.03672461956739426
      ]
    },
    {
      "x": [
        0.9787379841057392,
        0.9500884175255894,
        0.144043571160878,
        0.44386323274542566,
        0.31306770165090136,
        0.8644361988595057,
        0.04575851730144607,
        0.1549474256969163,
        -0.3479121493261526,
        -0.3873268174079523,
        -1.7062701906250126,
        -1.2527953600499262,
        -0.8954665611936756,
        -0.028182228338654868,
        -0.6343220936809636,
        -0.813146282044454,
        -1.6301983469660446,
        0.7290905621775369,
        0.402341641177549,
        -0.31155253212737266,
        0.46566243973045984,
        1.1787795711596507,
        -0.40317694697317963,
        0.3563663971744019,
        0.12691209270361992,
        -1.2704849984857336,
        -0.41361898075974735,
        1.8675589604265699,
        -0.2680033709513804,
        0.6140793703460803,
        0.298238174206056,
        -0.43515355172163744
      ],
      "coeffs": [
        -0.0006303125992417336,
        -0.002746155485510826,
        -0.004835869185626507,
        -0.006878606043756008,
        -0.008853877894580364,
        -0.010741778649389744,
        -0.01252321619540453,
        -0.014180120080709457,
        -0.01569564826786518,
        -0.017054369673132896,
        -0.018242452293634415,
        -0.019247807562351227,
        -0.020060237497091293,
        -0.020671546459197998,
        -0.02107563614845276,
        -0.021268583834171295
      ],
      "D": -2.1787893772125244,
      "y_skip_expected": [
        -2.1330808337267237,
        -2.0733291709013013,
        -0.3212735345564671,
        -0.9790866913866353,
        -0.699422317073629,
        -1.906891642094529,
        -0.1304059356021055,
        -0.3754088800359798,
        0.7134757530015496,
        0.7938173729279104,
        3.6641351762080507,
        2.6765967017205687,
        1.9015063501441019,
        0.01718458430021267,
        1.3440347796028245,
        1.7416999196684335,
        3.5532732181539295,
        -1.5543947549734594,
        -0.8285735034439629,
        0.7462444408308421,
        -0.9310387401919284,
        -2.4592282983653515,
        0.9930552380353022,
        -0.6547497793967523,
        -0.16025762791323236,
        2.877550007432058,
        0.9768328554374576,
        -4.018808364676884,
        0.6131954124989538,
        -1.3114494415671207,
        -0.6403198468609025,
        0.9365103591655131
      ],
      "y_act": [
        -0.16403301060199738,
        0.05238334462046623,
        -0.19105865061283112,
        -0.08037194609642029,
        0.04435531049966812,
        -0.09361809492111206,
        0.10200455784797668,
        0.008418585173785686,
        -0.1771177053451538,
        -0.040736183524131775,
        -0.2812822461128235,
        -0.21366894245147705,
        -0.18663455545902252,
        -0.15635544061660767,
        -0.14408408105373383,
        -0.15699945390224457,
        -0.2144324779510498,
        -0.1216576099395752,
        -0.01527328323572874,
        -0.14910322427749634,
        -0.08645692467689514,
        0.024826155975461006,
        -0.1961141675710678,
        -0.1329583078622818,
        -0.12303634732961655,
        -0.21280363202095032,
        -0.12151725590229034,
        0.0027612014673650265,
        -0.16125540435314178,
        -0.11177872866392136,
        -0.1989157646894455,
        -0.24876707792282104
      ]
    },
    {
      "x": [
        2.240893199201458,
        -0.1513572082976979,
        1.454273506962975,
        0.33367432737426683,
        -0.8540957393017248,
        -0.7421650204064419,
        -0.1871838500258336,
        0.37816251960217356,
        0.15634896910398005,
        -0.30230275057533557,
        1.9507753952317897,
        0.7774903558319101,
        0.386902497859262,
        0.42833187053041766,
        -0.3627411659871381,
        -1.7262826023316769,
        0.4627822555257742,
        0.12898291075741067,
        -0.6848100909403132,
        0.05616534222974544,
        -1.5362436862772237,
        -0.17992483581235091,
        1.2224450703824274,
        0.7065731681919482,
        0.40198936344470165,
        0.9693967081580112,
        -0.7474548114407578,
        0.9060446582753853,
        0.8024563957963952,
        0.9222066715665268,
        1.3263858966870303,
        1.8492637284793418
      ],
      "coeffs": [
        -0.006969444453716278,
        -0.00716813188046217,
        -0.007218923419713974,
        -0.007130939979106188,
        -0.006915111560374498,
        -0.006583929527550936,
        -0.006151188164949417,
        -0.005631700158119202,
        -0.005041018594056368,
        -0.0043951356783509254,
        -0.0037101993802934885,
        -0.0030022207647562027,
        -0.0022868092637509108,
        -0.0015788939781486988,
        -0.0008925064466893673,
        -0.00024054013192653656
      ],
      "D": 0.5684312582015991,
      "y_skip_expected": [
        1.2581759600389462,
        -0.10104431067654839,
        0.8014271529382696,
        0.1620339299531178,
        -0.5068489608640998,
        -0.43706138498904157,
        -0.11883450113529911,
        0.2015424691724939,
        0.07603664026056058,
        -0.1808204111312882,
        1.0882028764976213,
        0.417367813873487,
        0.19426435369494183,
        0.2166832745533524,
        -0.22837789426111255,
        -0.9889628399783781,
        0.2543186296928277,
        0.06526605572369841,
        -0.391459037252697,
        0.030181876726051087,
        -0.8632431401369696,
        -0.08925741684361597,
        0.7010591064695605,
        0.40384554818770085,
        0.2283682105630853,
        0.5445058626132927,
        -0.4267200641551261,
        0.5059304903379482,
        0.4401380147472162,
        0.5003491400241061,
        0.7197092434226533,
        1.0039040217238526
      ],
      "y_act": [
        0.11804642528295517,
        0.11407629400491714,
        0.15613658726215363,
        0.1440364569425583,
        0.13135917484760284,
        0.1142754778265953,
        0.09794102609157562,
        0.14161556959152222,
        0.09049501270055771,
        0.14271655678749084,
        0.11778973788022995,
        0.15161946415901184,
        0.15602946281433105,
        0.09259165823459625,
        0.15394502878189087,
        0.14873012900352478,
        0.13089610636234283,
        0.11500029265880585,
        0.12280457466840744,
        0.12897036969661713,
        0.10777284950017929,
        0.14301306009292603,
        0.17635764181613922,
        0.14910316467285156,
        0.14350636303424835,
        0.06408726423978806,
        0.15363909304141998,
        0.12241750955581665,
        0.16382455825805664,
        0.14386208355426788,
        0.12202216684818268,
        0.16058531403541565
      ]
    }
  ]
}